Language model created by QuickLM on Sat May  9 02:24:29 EDT 2020
Copyright (c) 1996-2010 Carnegie Mellon University and Alexander I. Rudnicky

The model is in standard ARPA format, designed by Doug Paul while he was at MITRE.

The code that was used to produce this language model is available in Open Source.
Please visit http://www.speech.cs.cmu.edu/tools/ for more information

The (fixed) discount mass is 0.5. The backoffs are computed using the ratio method.
This model based on a corpus of 13 sentences and 11 words

\data\
ngram 1=11
ngram 2=25
ngram 3=20

\1-grams:
-0.8592 </s> -0.3010
-0.8592 <s> -0.1912
-1.4960 BABY -0.2364
-1.9731 DADY -0.2364
-1.6721 HELLO -0.2200
-1.6721 HI -0.2200
-1.4960 LIGHT -0.2364
-1.6721 OFF -0.2200
-1.6721 ON -0.2200
-1.4960 THE -0.2200
-1.4960 TURN -0.2144

\2-grams:
-1.4150 <s> BABY 0.0000
-1.4150 <s> DADY 0.0000
-1.1139 <s> HELLO 0.0000
-1.1139 <s> HI 0.0000
-1.4150 <s> LIGHT 0.0000
-1.4150 <s> OFF -0.1761
-1.4150 <s> ON -0.1761
-1.4150 <s> THE -0.2218
-0.9379 <s> TURN 0.0000
-0.3010 BABY </s> -0.3010
-0.3010 DADY </s> -0.3010
-0.6021 HELLO </s> -0.3010
-0.6021 HELLO BABY 0.0000
-0.6021 HI </s> -0.3010
-0.6021 HI BABY 0.0000
-0.3010 LIGHT </s> -0.3010
-0.6021 OFF </s> -0.3010
-0.6021 OFF THE -0.1249
-0.6021 ON </s> -0.3010
-0.6021 ON THE -0.1249
-0.7782 THE </s> -0.3010
-0.4771 THE LIGHT 0.0000
-0.7782 TURN </s> -0.3010
-0.7782 TURN OFF -0.1761
-0.7782 TURN ON -0.1761

\3-grams:
-0.3010 <s> BABY </s>
-0.3010 <s> DADY </s>
-0.6021 <s> HELLO </s>
-0.6021 <s> HELLO BABY
-0.6021 <s> HI </s>
-0.6021 <s> HI BABY
-0.3010 <s> LIGHT </s>
-0.3010 <s> OFF </s>
-0.3010 <s> ON </s>
-0.3010 <s> THE </s>
-0.7782 <s> TURN </s>
-0.7782 <s> TURN OFF
-0.7782 <s> TURN ON
-0.3010 HELLO BABY </s>
-0.3010 HI BABY </s>
-0.3010 OFF THE LIGHT
-0.3010 ON THE LIGHT
-0.3010 THE LIGHT </s>
-0.3010 TURN OFF THE
-0.3010 TURN ON THE

\end\
